#include"Definitions_fully_test.h"
const int layer11_bias [512]={28309, 15856, 140557, 87628, 2770, 407500, -88877, 57772, 150898, 113292, 114940, 938, 24537, 153795, 135798, -36180, 24538, -19202, 124398, 16375, 408395, -66294, 172671, 17032, -22945, 248186, -3423, -65151, 220698, 186886, -36792, 23355, 57303, 76064, 244386, 13818, 111489, -149162, 50402, 114667, 39110, -31578, 144240, 41348, -30359, 218977, 61895, 22546, 261287, 7413, -155076, -21340, 28733, 120101, -22085, 130642, 93812, 122972, 90054, 68321, -98688, 28222, -9080, 32118, -24007, 166465, 156419, 90557, 87808, -17495, 260334, 55213, 31445, -32771, 284122, -49456, 212082, 46451, 98141, -48313, -743, 18589, 36633, 15035, -19497, 30765, 79163, -37848, -28946, 77685, -107876, 51308, 51794, 102967, 109025, 214562, 118286, -33217, -69624, -117083, 9891, -305153, -70911, 71387, 113648, -7171, 55924, -24063, 15186, 54688, 112052, 127775, 212802, 47887, 10537, 13547, 156751, -59567, -60007, -110911, -93356, -49669, -88400, 192653, -79466, -26546, 34963, 156704, -70139, 190092, 188454, 39224, 71881, 39480, 76038, 49776, -30840, 43849, 64162, 298830, 80023, -129262, -28589, 26613, 49897, 3908, -63390, -62104, -23901, 154956, -49233, 93185, -13009, 45227, -134379, -52754, -129708, 200696, -20568, -23751, 186406, 138278, 23381, -66050, 59563, 23635, 62842, -151430, 15162, 12441, -30660, 109154, -44937, 315513, -41895, 254473, 96765, -24902, -11059, -46214, 85642, 19747, -78639, 286287, 134563, -14702, 18924, -18038, 240783, 41947, 32424, -21104, 9867, -7646, 177223, 34347, 138389, -39605, -20328, -113355, 93474, 137902, -50083, -75735, 20556, -198300, 6151, 49741, 38958, -62289, -24219, 235027, -27158, 20629, -85553, 64231, 312112, 65461, -71471, 11355, 81978, -96644, 109432, 106121, -119392, 57511, -34175, 383463, 76343, 133705, -18348, -30208, 24774, -16387, 262049, 67225, -88116, 15592, 3962, -25792, -108485, 81581, 197298, 43951, 112467, 45232, -46947, -120315, -81821, 94437, -3839, 25998, -19697, 697, 138054, 44532, -29689, -74336, -2654, 1736, 199666, 39137, -24860, -98206, 104719, -34771, -96620, 76910, 168959, 295286, -109420, -9673, 29616, -50889, 3226, 264913, 41359, 27364, 82452, 70427, 1861, -48627, 44526, -39508, 81780, 84600, 9055, -111687, 72451, -17297, -45796, -102474, 195960, 30132, -28859, -39020, 35861, 59998, -19614, 239827, 353359, 311750, 126614, 229998, -18384, -3801, -20447, 222444, 122845, -106763, 80261, 32132, 296435, 288421, 289809, -71097, 65520, 151920, 27923, 165027, -28152, -22515, 104358, 127096, -86800, 608404, 193171, 102083, -51506, 92166, -32928, -36104, 42001, -131332, 101736, 362658, -29287, 27561, -33457, 423168, -39976, 71756, 53827, -44417, 171502, 42124, 21858, 76091, -116563, -30311, 35210, 32392, 660278, -26218, -63785, -44394, 6640, 30911, 124799, -21682, 114426, -83684, 38498, -159539, -133192, 89107, 28316, 218150, -4518, 21904, -133659, 275262, -8682, -34135, -20580, -86142, 2172, -56118, -22921, -43742, 48891, 132243, -60207, -140925, 124503, -46666, 161351, 32308, 63718, 10567, -49159, -83719, 132894, 7828, -18343, 94693, -22451, 56567, 66753, -99935, 37317, -35636, 258069, -143634, -79999, 152411, 130732, 295370, 74610, 99492, 124322, -1577, 173835, 41348, -802, -81955, 28169, -21824, -35424, -119141, -25647, 79451, -85845, 23750, 52671, -33781, -22732, 173520, -48750, -41987, -61511, 243406, -34485, -109848, 62561, 9383, 98912, 38375, 82604, 126461, 61249, -55138, -29747, 302496, -44356, -83503, 184214, 7501, 24940, -11238, 8904, 35889, -74575, 11474, 86729, 45308, 13629, 187809, -38522, -119089, 133724, 148216, 10057, 102896, 10484, 4714, 24967, -15988, 73280, 126721, 86883, -5300, 18216, -89120, -6036, 19816, -34457, 31086, 173246, 146512, 35542, 174310, 8822, 284616, -26248, -100920, -2144, 123383, 38904, 75451, 114707, 138637, -66418, -14138, -151620, 158156, -134829, 173765, -79829, 70768, -54616, -137937, 152979, 89304, 36427, 76481, 106449, -18345, 128703, 83443, -8700, 21312, };