#include"Definitions_fully_test.h"
const int layer7_bias [256]={-155963, -16392, 419777, 122956, 52900, 23454, 276110, 189233, 313873, -73506, 12870, -16903, -10499, -212524, -109147, 29312, 225046, 39074, -187018, 206754, 294244, -46288, 45667, -18383, 100993, 101216, 306903, 25444, -68899, 172596, -155267, 162763, 63830, -56983, 32584, 2377, -189862, -216808, -76578, -125894, 246803, 42026, -36087, 71465, -143312, 81884, 3004, -122656, -39221, -65135, -106705, 2230, 35365, 127775, -125206, 165052, 26778, 171950, -6898, 220556, -29765, 105194, 668, 166348, -87875, 176880, -42926, -10810, 118175, 97147, 103986, -128294, 256846, 141715, 89285, 333443, 69852, -73866, 55791, 36452, -366, -58322, -124105, 162764, 232625, 118971, 59329, -321058, -97364, -59342, -46773, 41297, 11696, 89650, -214479, 2391, -202709, -176470, 130867, 229757, 14693, -115283, -103164, -36982, -50383, 180233, 119588, 293115, -197538, 361882, 32447, -51295, 125987, 172709, 2511, -13069, 332841, 120888, 36742, 313757, -18294, -50713, 10452, 158986, -354008, -89279, -109149, -324916, -145091, -148154, 95792, -67376, -421801, -297191, 164460, 80195, -17062, -63773, -5567, 21892, 78119, -15074, 165314, 48833, 86619, 249648, 154384, 12109, 207126, 39411, 217422, -13913, -54968, 63515, 30832, 190882, -157851, 55126, 348746, -103534, -1960, 76449, -92106, 136243, -61730, 192885, -64821, 59637, 6112, -69132, 122775, -105739, -76168, -90720, -137951, -76888, -50810, -126685, 117631, 7397, 275520, -119083, -77842, 79215, 237045, 88580, 139217, -97982, -197847, -20213, -28039, 358421, -46713, -29294, 206365, 103688, 161635, 21257, -200907, 104619, -32425, 174147, 26786, -51793, 143146, 200618, 430349, -39377, -13088, 71280, -33179, 146432, 203256, 289898, 10319, 113156, -20018, 95225, 262756, 13164, 41147, -30671, -89524, -125631, -103462, -19150, 157457, 250402, 88461, -74852, 130693, -116786, -18855, 98049, 242383, 3322, -137030, -5795, -60554, 733045, 278571, 155478, 19004, 1847, 49567, -72045, 113779, 65904, 8336, 138992, 168540, -61073, -41607, 110130, -93755, -58458, };