#include"Definitions_fully_test.h"
const int layer5_bias [128]={-134575, -242416, -277077, 127816, 564296, -213243, 120700, -53311, 51472, -353271, 275897, -24848, -586299, -35901, 304350, -440388, 207693, -26775, -218809, 247844, -443004, -477247, 933353, 85382, -649810, -80225, -548937, 102768, 307886, -204807, -337622, -170213, 538485, 189657, 74203, 493046, -1248590, 587326, 47746, 323294, 226113, 325889, -581795, 305376, -154066, 18418, -174319, 338878, -364271, -15769, -545282, 195355, 753557, -193276, 171384, -504328, -270865, -39026, -244493, -244644, -380828, 345657, -100409, -92217, 299548, 565163, 748559, 74472, -376824, 103111, 1330397, -435380, -126707, 253748, -185224, -632288, 600885, 228369, 304547, -96140, -185588, 284171, 352053, 147087, -225082, 939690, -170170, -98350, 382093, -40116, -43515, 796545, 156839, -195110, 644333, 32531, 329544, -389388, 159510, -601998, 434224, -481096, 366484, 425683, -927325, 98202, -308869, -51694, 311802, 10818, 10316, -368904, -19175, -542649, -26382, 103809, 364482, -40044, -224038, 39293, -174464, 139798, 22296, 793713, 245758, 430547, 504420, 576670, };