#include"Definitions_fully_test.h"
const int layer17_bias [512]={394877, -1049347, 1137125, 516854, 323136, -495069, -24670, 75024, 159275, 342834, -282466, -176236, 526314, -351184, -59350, 849194, 103361, 719354, -520645, -178903, 240904, -17491, -167213, 438254, 480852, -748967, 743689, 103750, 561548, 244896, 520236, 400065, 476315, 434783, 908884, -448971, 896705, 59804, -212029, -244517, 33028, -403568, 1068448, -212004, -357453, 382284, 137788, 312383, -70164, 491265, 246573, -234063, 350803, -457868, -26276, 1365873, 909790, 114493, 527544, 465600, 43460, -543088, 278033, 309035, -313530, -51635, -4000, 74617, -602064, 428179, 120169, 271670, 258513, -399117, -110287, -172150, 1610611, 455242, 91594, -138774, 325536, 1305726, 415600, 283357, 270249, -101574, 985211, 102183, 740835, 1137781, -439297, 283827, 261339, 471027, -406966, -35493, 12610, 429562, -73166, 646456, 576713, 1271728, 274483, -164292, 483846, 130252, 224494, -517769, 654216, 585536, 458114, 216384, 120451, 4087367, -190368, 16757, 330833, 1354109, 409865, 1405158, -247243, 437232, 284278, 1060067, 477545, -59845, 153309, 453651, 219854, 15352, -206698, -44009, -250791, 1011241, 48204, 165573, 350034, 426228, 460004, 666430, 4996, 972, 116111, 553321, -563827, -134082, 658767, -219188, 451948, 564744, 13220, 44420, 63542, 281577, 374915, 19779760, 578136, 276446, 392114, 180000, 313790, -419772, -634916, 1466024, 216620, 124528, 1438816, -369102, 413259, 455965, 210174, 420575, 1089331, 636250, 228032, 528717, 205747, 14172, 86403, 746549, 206071, -266620, 123752, -44411, -198480, 678312, 1118181, 589821, -146841, 94375, 122770, -57247, 258639, 329351, 132159, -376885, 352758, -47664, 298074, 579388, 84918, -417488, 767231, 57276, -275436, 195510, -159486, 40573, 3821, 87072, 53811, -137925, 79038, 570870, 294163, 700675, -87789, -201060, 576149, -326196, 76454, -276954, 28089, -102452, 222612, 1124758, 782134, 71178, -180381, 1675178, -382388, 343921, 394581, 330682, 180359, 11577, 43090, 768725, 314900, 142828, 264615, 560862, 277266, 135681, 508782, 151513, 263488, -145866, 984762, 307933, 318938, 22651, 16549, -38488, 2159464, 600790, 570758, 62781, 235782, 731625, -130167, 457161, 899157, -87418, 768346, 226718, -53649, -839347, -504976, 1508146, -10712, 976179, 250169, -253652, 504728, 896629, 1174260, 264843, -240807, 256159, 61941, -149636, 601447, 516119, 380036, 656291, -195735, 2525, -552409, 751477, 341445, 789290, 820177, 230701, 233388, 43522, 241161, 131791, 1120177, -443713, 124046, -332935, -7945, 73982, -43186, 322573, 252934, 264764, -130088, -30245, -309635, -384020, 437697, 696144, -184631, 3268594, 465563, 487477, 119039, 833577, 1055578, -302040, 402767, -290007, -13497, 712484, 983765, 47827, 1375919, 514164, -352498, 150800, -256932, -492480, 412308, 181404, 268642, -188990, 1025719, -282625, 223482, 266529, 919820, 956148, 96828, 346820, 749535, 204283, -485035, 177308, 607825, -207424, 1890368, 529302, -452428, -117082, -238701, -12987, -280935, 338038, -100793, 290978, -63192, 385811, -247499, 816171, 128707, 333320, 123516, 1089733, 259949, 1165139, 1051497, -79899, -296237, 147560, -363076, 734848, -282335, -48310, 124774, 653136, 921183, -174949, 17083, 172891, -134677, 364008, 205083, -198761, 1258982, -599152, 1390470, 480052, -115705, 412745, 274871, 244653, 573594, -337418, 32313, 347436, 842600, 408572, -714057, 976902, -57039, 205281, 630976, 174344, 137178, 405953, 92187, 414949, 1300870, -52021, 66608, 896013, -374580, 47725, 213658, -371551, -191403, 143640, 438637, 445997, 545700, -40403, 390639, 182155, -345962, -141495, 736168, 166572, 728928, -686483, 479218, 40190, 912105, 49192, 1052895, 6023036, 7266, -71752, 739036, 961165, -412185, -259519, 371474, 132819, -4539, 698393, -114391, 408216, 486353, -407152, 149847, 88051, 687245, -231622, -226437, 276079, 517768, 15165, 582326, -329640, 130994, -2795, -32936, 435135, -20191, -85330, 693198, -119820, 1196193, -217205, -376001, 690110, 120514, -178024, 359267, -119795, 802747, 522588, -351470, -113818, 975417, -660458, 710506, -251201, 158550, 568668, 270557, 297789, 692940, 439783, 575811, 393136, 449105, 255845, 1243793, 44712, 1696626, 648902, 721740, 348576, 285456, 489531, 16778, 216686, 1338531, -55688, };