#include"Definitions_fully_test.h"
const int layer15_bias [512]={203885, -153594, 317812, 225260, -165532, -50657, 177891, 131081, 605837, 326775, 281027, 146424, -455524, 222019, 466155, -60415, 135672, -291249, 430564, 250149, -87722, -23352, -182890, 158467, 553795, 204341, -137537, -292731, -341049, -18353, 440021, 252942, 488693, 29900, 266582, 90823, 225548, 53776, -151494, 119582, 73601, -92496, -160590, 380702, 378251, 353876, 204995, 37815, -30090, 155646, 197069, 250525, -264485, 644962, -205151, 316324, 23448, -281503, -28000, 304470, 103826, 613562, 28595, -208383, 4666, 235865, 35056, 33150, -548822, -113770, 174618, -183339, -226777, -281524, 187301, 333404, 151645, 112222, -205313, -46617, 348246, 30754, 102381, -129768, -5073, -73580, -119605, 444082, -123137, -87517, 393036, -184296, 380777, 6690, -223159, 547730, 162195, 530736, 142210, 146652, -254692, 68715, -153695, -272029, -405480, -310031, -166216, 183786, 17785, 82757, 130365, -9501, 271361, -11664, 319322, 24634, 407106, 3794, 252854, -140559, 205322, -92825, -29096, 168604, 9991, -41438, 132222, 412086, 555295, -598556, 109289, 334839, 290495, 356171, -167495, 380946, 269039, 87942, 768, -170574, 514770, 126558, -200650, 44117, 7973, 194519, 523518, 265391, -80807, 639645, -123751, -5245, 293325, 5345, 493540, 169830, -116639, 53413, 74874, 87161, 382935, 285700, 122788, -25372, 39738, -7070, -190640, 65561, 500645, -134675, 306290, 57900, -183475, 155260, -8258, 472082, -92208, 88597, -350483, 219999, 16573, 502284, 174916, 130271, 352106, 233216, 365097, 317149, 252416, -15923, 211333, -156575, 155430, 152960, -153831, -63026, 217062, -232367, -163590, 267893, -87618, 274083, 106857, -209393, 530726, -137761, 441323, 208839, -184164, 443686, 12382, 367874, 244451, 134661, 485856, 16316, -278813, 5609, 436367, 16107, -105681, 53318, 197553, 176935, -51328, 654520, 102837, 426550, -38778, 302002, 131108, 94658, -453557, 1056607, 155042, -34365, 117585, -139007, -48184, -259365, 708497, 289076, 193073, -72196, -287530, 1011184, 276178, 190742, -222761, 411000, -222526, -41848, -349066, -240992, 186285, 140258, 465407, -89500, 168049, 419464, -301049, -80481, 381800, 264127, 614920, -120430, -330082, 122970, 624031, 60610, 92404, -28428, 203731, -168867, -547587, 537967, -433993, -172341, 942666, -8808, 100414, 195642, 460360, 223889, -107357, 152910, -192346, 109491, -110749, 341173, 124073, 411610, -154398, -171657, 323419, 72457, 163110, 82752, -393225, 195328, 175508, 112067, 118850, 455544, -220594, 437224, 218563, -390024, -193388, 140583, -116583, 388116, 175620, 101073, 215518, -268093, -262637, -164445, 82443, -357784, 92170, 304899, 385497, -97227, -190992, 273637, 7295, -197075, 451346, -420465, -137465, -383289, 158149, 515737, 189014, 92779, 20271, 62704, -735687, 312904, -144621, 61362, -544778, -161129, -372547, 959445, 389745, -240139, -73819, 354604, -40412, -105061, 1375, 61648, 45959, -228301, 66065, -276473, 28152, 26288, 225941, -321500, -148905, -152650, 599004, 93997, -115745, -27322, 259560, -36410, -417633, 153682, 158281, -364044, 13973, 79513, -34207, -221440, 116590, -37203, 73138, 114182, -148936, -147447, -119911, 98485, -175808, 91523, 282000, 299447, -203113, -75977, -73950, -36139, -190079, -205502, 158546, 251753, -242429, -294364, 257083, 50435, 189716, -402049, -74643, -58501, -223617, -179743, -258823, 244661, 596584, 12684, 348094, -196063, 250891, -38929, -138636, -16809, 99002, -149757, 14900, 559883, 304940, 179560, 710398, 83093, -305854, 350176, -226702, 333520, 471958, 298386, -28635, 148256, 546828, 242341, 465256, 121625, -328875, 633825, 569905, -10613, 152818, 186887, 382297, 184530, 81675, -36223, 314828, 89968, 123280, -192591, 156902, 932243, 313481, -91303, -48431, 68261, 620685, 226496, 264656, 773629, 254925, 235369, 395658, -76174, -110931, 377571, 160766, 356987, 302283, 205034, -311553, 153136, 546330, 171462, 190286, -306764, 82410, 258, -245543, -122202, -114106, 158827, 443603, 241179, 322751, -93477, -274154, 119444, 744189, 10263, 72306, 346536, 49261, 313555, 148315, 61301, 523609, 194340, 126191, 178310, 90228, 739415, -242304, 428514, 271966, -185065, -88333, 64856, 253612, 1341804, };