#include"Definitions_fully_test.h"
const int layer16_bias [512]={447342, 487274, 33017, -14052, 532842, -210074, -175392, 424768, -299551, 37057, -446207, -54090, -296845, 240268, 126107, 788571, -781231, 293638, -91605, -324182, 357282, 102370, -475305, 43424, -291634, 617261, 14643, -192733, 355551, -724036, 471038, 523060, 22877, 543886, 644511, -164693, -41601, 690013, -360683, -174687, 864490, 895669, -1415, -39967, 41778, 280995, 128155, -321780, -844101, -108775, 591284, -20568, 64729, 129396, -319910, 741613, 446135, -1186879, 447558, 69980, 457957, -76393, 131346, 553582, 141989, 369223, 277770, 169774, 882859, 514636, 197283, 549573, 435984, -266119, -162067, 126187, -100264, 143204, 2486, 286701, 570672, 76211, 724153, 228845, 286339, 365695, -1217794, -271011, -555298, 1516128, 115627, 143196, -43081, 141708, -247481, 348523, 555906, -295509, -239071, -1603843, 510648, -116730, -536096, 808677, -30361, 342650, 21062, 833226, -1477563, -460587, 439676, 594807, 134605, 82527, 17092, -289623, 195413, 134545, 189245, -885827, -97743, 440348, 565899, 367767, 823674, 54660, 719768, -286645, 160789, -161001, 291468, -134168, 157950, 380313, -147311, -39392, -79778, 309481, 38572, -107464, 422808, -152425, 325081, 232046, -347341, 50222, 1006530, 440305, 104203, 562585, 383466, 636412, -103272, 27696, 438610, 225893, 514649, 175033, 168845, 160310, 179543, 10551, 263117, 522410, 408442, 96161, -186546, 882668, -172175, -305000, 584519, -76183, 432504, 479809, 20948, -231044, -204551, -636620, 194608, -44020, 544390, 149043, 442568, 341895, 341432, -100359, 96144, 79694, 263888, 671823, -75180, 560619, -1369270, 520332, 243940, 118403, 468017, -174816, 292889, 120520, 402649, -8381, 652296, -58420, 454804, -265072, 732522, 159201, 868467, -64376, 59936, 400838, 331273, 1127, -336754, 410527, 465550, -173639, -67380, 151676, -370554, 514332, 9013, -322398, 134169, -799609, 1593177, 202679, 82183, 18008, 383853, 70138, -555274, 458320, -25519, 351173, 567887, -312538, 39083, -70003, -150698, 74961, -354984, 468010, -414207, -270592, -66093, 134063, 228122, 363594, 416725, 91388, 549608, -211419, 1100608, 356674, 224645, -770246, 56164, -1383206, 306346, 57703, -395369, 253325, -277679, 863601, 44516, 147246, -595144, 162028, 42359, 349214, 1005035, 719178, -70096, -716372, 368710, -752973, 128243, -103244, 323866, -152698, 771009, 188718, -466452, 122048, 274035, -470393, -120027, -339993, 273191, 215506, 346167, 765921, 248869, 154939, -42476, -120144, -486637, -652194, -268778, 469288, 117039, 234691, -72339, -817843, 725739, -640329, 191886, -306605, -134112, -230163, -102246, -286807, 40272, 439037, 444573, 785369, -104343, 292393, -51880, -151439, 386611, 287154, -400508, 223918, -16434, -138555, 727713, 205724, 903520, 21374, -265261, 247897, -1095982, 160318, 103823, 908869, 139141, 559501, -112233, -699148, 290319, 969467, 444608, 98703, 325875, 228472, 144249, 571472, 303814, -35585, 164895, 59224, 653222, -961989, -8548, 240448, 71426, 200278, -794168, 161945, 248420, -64489, -341935, 131712, 341230, 230982, 524503, 403850, -69099, 183045, 122917, 91256, -105380, -389070, -175074, -14187, 311598, 273007, 550161, -60226, 68173, -20744, 157727, 227687, 96157, 131588, 319098, -15559, 227713, 582206, 24866, 28500, 437882, 85176, 546783, 843849, 441544, 870791, 155341, 208282, -356263, -174308, -1586704, 592032, -11489, 671927, -222724, -111421, 106901, -78555, 188692, 472274, -844691, -89408, 440267, 270263, -562952, -14498, 717073, 293520, 759297, 192180, 438469, -328111, 307486, -453958, -27832, 314264, -22531, -138239, -413700, -422379, -58289, -314645, 197603, 429723, 91296, 374129, 384399, -257299, 428783, 609956, 255205, -408238, 59987, 1115498, -567112, -317466, -9961, 480573, -531296, -84490, 315497, -90475, 196703, 1025824, 75267, -95674, -13055, 184919, 436148, 872106, 361688, 214581, 760214, 203752, -896642, -1561234, -601391, 506468, 536235, 489610, 780759, -124299, -1923310, 482932, -214967, -330419, 5438, 67957, 403218, -209214, 222980, 225617, -93072, -849888, -388400, 376074, -696201, -29827, 292688, 586808, 260641, 395596, 635769, 623591, 67813, 127024, 357340, 599953, 210758, 136931, 748613, 12270, -320979, -22667, -965416, 344778, 493246, -370633, };