#include"Definitions_fully_test.h"
const int layer13_bias [512]={78763, 48909, 102408, -27577, 327955, 258214, -20748, 149820, 136459, -97907, 227358, 162372, 231260, 40470, 168086, 49545, 162622, 119482, 95657, 228956, 143615, -52186, 38001, -91598, 493, 72689, 13002, 76326, -3292, -104171, 677998, -41107, 80602, 252118, 229382, -115596, 230803, -149998, -8346, -11591, 90367, 117406, 47575, -118779, 67035, 123028, -66184, 157331, 35470, 211020, 277046, 28918, 144967, 175770, 189162, 218778, 50463, -21911, 329475, -17609, 94934, 563736, 96972, 338583, -18820, 15765, 12394, -49743, 116788, 154385, -26475, 201197, 13766, 502885, -160144, 106258, -31200, -35569, 129340, 186803, -33553, 126477, 209733, 196620, 251051, -15018, 330488, 245595, 90817, 6499, 91189, -30231, 52443, 7969, 74975, -43005, 92571, 250369, -163291, 173995, -22995, 14561, 196418, 44428, 74240, 125623, 175678, 338003, 82619, 92014, -93666, 158877, 53261, 225853, -47463, -157666, 244562, 85490, 137320, -167538, -112282, 283152, -17327, 182852, 130599, -154425, -134543, -71520, 85503, -37000, 324573, 88440, 124488, -187420, -81196, 65862, -26955, 191453, -77576, 152376, 265319, 129786, 15719, 44595, 178867, 243391, 169292, -234313, 156734, -92629, 82388, -45160, -56429, 21595, 170895, -190841, 113978, -185007, 18503, 90990, 149585, -86520, 83641, -130019, -126225, 42216, -7480, 79419, 2914, 168456, -78205, -13264, 174212, 103358, 265686, 16174, -61911, -1656, 145126, 273363, 387525, 40206, -31448, 230881, 144749, -624, -243251, 118054, 95591, 76766, 108683, 87862, 72485, -44608, 42697, -7941, -153235, 70602, 205708, 156190, -288625, 207003, 154838, 122139, -99311, -6130, 16049, 82617, 132112, 8765, 273691, -16548, 204918, 242939, 38017, -160061, 1499, 167797, -66865, 87510, 23703, 81625, -36266, -117160, -1121, -3500, -16412, -11288, 4693, 36427, -41633, -54156, 228950, 14769, 23092, -131613, -6981, 469657, 21366, -59171, 154820, 61225, 65720, -52740, -25525, 228890, -36683, -49717, 231907, 131710, 129416, 55128, 48275, -5913, 21953, -97479, 254871, 77174, 60136, -267707, -27906, 273013, 36192, 296890, -223112, 127768, 67759, 708137, 161391, 134443, -193723, 368210, -147560, 36911, -78779, 200675, -106552, -57739, -129880, 6250, 223359, -155994, 63891, -41851, 92150, 108405, 92640, 15996, 181097, 189501, 111289, 116550, 133538, 114880, -26148, 9514, 57461, -93367, 240517, 28805, 48760, 4850, 4408, 10404, 87802, 48186, 62290, 67587, 191222, -112553, 149315, 18642, 155643, 297462, -176065, 193293, 181057, 165742, 92079, 41307, -58136, 242268, 332072, -179175, 17300, 12290, 195563, -95543, 194363, 242754, -62426, -60108, -32053, 56800, -30616, -52501, 68694, 181578, 6035, 94395, 22860, 113780, -15401, 128358, 201018, 204170, 29791, -35562, -31417, -11785, 93700, 167128, -24525, 184081, -86346, 120673, 69260, -39958, -60759, -50079, 203493, 99656, 162997, -54402, 54555, 154350, 134154, 89776, 266059, 334657, 185370, -11386, 55229, 38863, 137115, 23078, 144436, 120553, 124462, 115183, 127814, 180217, 425198, 90016, 167349, 199849, -26865, -21998, 36340, -110044, -66948, 103359, 5614, 340597, 251859, 266015, -123388, 320821, 106892, -39287, 125988, 109865, -157686, 34602, -113290, 730, 177534, -41056, 117271, 92403, -103460, 131127, 18375, -961, 25925, -79463, -137629, -45499, 128524, -58022, -57037, 17206, 143757, -79314, -101198, -57515, -68413, -6598, 186096, 223618, 76545, 339957, -87927, -226496, 93450, 121245, 468257, -76768, -21746, 154673, -10946, -210029, 20599, -299112, -47004, 180485, 175159, -86854, -132408, 906, 234707, 7214, 98687, -134900, 143573, -10410, -14768, 20858, 231616, 145820, 434336, 45239, -170650, 118858, 674041, 27994, 95379, 72104, 51924, -415999, 108269, 169527, 83643, -13374, 31347, 171287, 321357, 107570, 7329, 28338, 86782, 320279, -63033, 72149, 80655, -48315, 293019, 221188, 41615, 191742, 1513, -17119, 89069, 269091, 53564, 47836, -74970, -51401, 40752, -33073, -196835, 97004, 66844, -24420, 342933, 113333, -20894, 5428, -166048, 151329, -270602, 112680, };