#include"Definitions_fully_test.h"
const int layer4_bias [128]={-96003, 135103, -66068, 182746, 268525, 516169, 343910, 503131, 464916, 298512, 69644, 314112, 24246, -390, 566758, 512791, 573086, 569524, 566839, 567381, 464486, 397349, 8533, 129041, 766571, 456870, 293873, 47558, -30997, 137709, 659301, -161661, 220018, 440652, -155329, -179939, 286359, 496606, 63275, -7807, 16132, 643626, 273528, 8937, 567641, 529039, 606455, 267388, 588604, -94063, -88893, 131388, 209967, -209012, 213369, 497013, 164646, 270201, 238903, -27630, -217710, 479516, 193059, 136800, 412754, 150128, 549615, -134861, 104220, -129295, 277865, 188808, 216277, 476050, -70054, -375929, 423818, 109741, 372303, 454561, 269143, 338365, 343515, 752824, -109400, 443046, 307160, 218250, 496850, -36759, 297419, -329097, 115657, 376682, 409384, 104597, 307469, 315849, 103287, 470750, 58719, 97461, 115018, 674952, -48447, 10874, 47019, 407808, -20106, 537723, 289034, 603301, -1876, -18917, 151385, 41026, 538420, -76929, 69143, 561014, -221401, 7879, 588598, -187399, 139916, 664207, 201875, 276567, };