#include"Definitions_fully_test.h"
const int layer9_bias [256]={74202, 226315, -37873, 90770, -117434, 79051, 155272, 24362, -87489, -246159, 142288, 256259, 43085, 78191, -36958, -111009, 274824, -55521, -709, -36333, -1045, -61654, -37820, 72281, 220852, -64871, -118159, -61196, -118366, 364441, 45640, 428386, 37351, -43716, 75083, -71269, 8627, 111562, 128303, -47142, 53246, 15147, 293305, 286155, -96517, 24179, 67672, -299733, -2699, -52454, 203019, -186314, 86162, -62981, 591256, 106045, -28321, 124349, -61214, 19058, 6131, 154207, -12676, -100221, 15408, -139362, -127795, 771204, -24454, 92507, 27791, 475292, 199719, -50241, -121456, -124751, -169798, 101196, 15112, 50652, -41567, 59853, -167789, 499228, -64190, 211057, 30433, 79136, 162294, 274146, 167118, -3040, -67042, -31648, 73884, -89574, 353971, 58715, 374498, -91101, -49816, -72796, -31393, 118880, 270766, 136145, -30419, -47135, -53346, 83081, -53754, -105516, -104498, 4651, -45687, -60707, -51420, -21389, -10811, 283202, 207462, -32795, -195160, -161803, -35544, -104456, -43019, -50378, 230826, 13587, -133251, -21073, 128549, 144880, 10506, 71981, 164200, -106448, 29468, -139801, 85357, 56292, -127493, -19513, -55035, 6453, -28215, 204236, 374584, 94534, 113877, 156609, -18855, 151485, -77183, -48352, 160870, 307621, 4530, 164722, 7179, 232955, 89037, 229379, -126704, -17942, 101817, 59935, 335495, -6391, 72563, -103978, 39, -202048, -100121, -82106, -90947, 94941, 137483, -56990, -44540, 307699, 66305, 185945, 60708, 57406, -53150, -40005, -8111, -123119, 145619, 205728, -120984, 122636, 443249, 6393, -55899, 183674, 289736, 490419, 423851, -10745, -58732, 121155, -11428, 278894, -135025, 21506, 44373, -17759, -30825, -18623, 331054, 225325, 157811, -138366, -55171, -52504, -117308, 31301, 224090, 442956, 258042, -62643, -33332, -92524, -67528, -37736, 466, -153578, 199133, -104499, 10821, -117804, 167163, 291944, 118789, 69983, -115918, -23026, 278466, 227598, -203433, 103893, -51974, -31861, 1247474, 143956, 253852, 97696, -76104, -29518, 358573, -12652, 12482, -56109, };