#include"Definitions_fully_test.h"
const int layer8_bias [256]={41378, -2753, 193819, 267292, 404610, 189671, 142605, -22853, -107232, 78309, -30718, 75904, 93900, 239714, 83146, 69508, -86909, 264681, 192161, 248580, -27484, 157473, 269184, 16966, -225718, 2707, -71372, 245145, 60253, 64768, 81405, -142846, -14929, 21970, 43330, 70096, 9595, -110632, 101297, -114931, 353163, 24300, 42303, 35392, 148540, 455651, 3354, 344220, 6435, 24505, -12322, 108805, -117672, 183181, 33349, 183892, 277502, 79984, -39304, -145355, 119679, 19410, 101559, 4950, 7384, 427501, 251754, 358312, 473554, 17470, 87142, 184932, -48348, 115478, 10132, -8340, 50149, 156299, -34420, -30949, 494346, 256715, 30832, -373051, -271241, -65889, 47734, 20227, -67239, -53126, -184361, 281234, 334252, 184158, -72067, 114499, -102804, 74336, -41390, 92997, 304587, 162971, 21651, -54392, -981, -183449, -157414, 124060, 129145, 196632, -31414, 37463, 576500, 320967, 152525, -218434, 92944, 363232, -127754, 371592, 176298, 14651, -66630, 44154, 88750, 133272, 84772, 78968, 75496, 214038, 163, 196804, 98254, 132846, -79388, 166407, 237250, -83053, -122250, -168265, -97660, -54817, -69637, 6648, -157827, 49467, -160147, 149388, 138927, 363990, 515439, -167708, 41831, 222420, 125516, 69922, 199396, 10560, 186640, 51896, 310693, 416367, 154201, 228020, 428712, 43037, 95953, 88176, 38985, -54200, -131522, 245545, -48158, 71424, 105415, 339924, -307, 248818, 202342, 144701, -296136, 703, -154831, -54896, 158921, -15836, 166613, 26234, 262716, 8372, 62385, 58457, -58779, -5005, 24071, 80346, 74565, -131017, 354455, 137370, -149235, 232479, 10291, 71072, 212927, 73073, 105303, 89453, 12805, -30303, 144260, -49493, -10607, -74296, -3279, -33348, 89351, -12172, 248517, -413, 55887, 141824, -380273, -121825, 61675, 122117, 78465, 34036, 44095, 176560, -7696, 27502, -54775, 42229, 80864, -315145, 138626, -150040, -84015, -43763, 277236, -35727, 298620, 353990, -30582, 37115, 308419, 65312, -185131, 428474, 97964, 58993, -18523, 165274, 205911, 342008, };