#include"Definitions_fully_test.h"
const int layer12_bias [512]={49638, 96217, 19502, -37160, 117683, -81116, -52777, -92655, 31809, -66424, 178454, 149364, 14824, 5029, -1037, 85572, -19278, 62046, 120196, 150614, 85132, 33477, -100632, 180365, 314594, 120118, 4491, 19814, 87465, 125769, 71994, 138126, 44475, 174371, 113995, -12138, 67229, -1691, -87173, 193552, 140257, -143501, 198561, -2387, -46945, 52598, -59720, 113225, 156060, 67130, 18047, -111653, 95058, 68950, 118955, 153948, 78429, 75697, 72009, 118305, 53393, 140580, 27025, 207394, 14610, -66102, 94022, 183549, 139798, 102146, 137365, 41820, 117981, 81720, 29230, 23040, 145916, 74915, -35327, 62592, 60971, 126051, 55820, -71991, 164712, 79014, 100215, -41499, -101918, 86498, -118274, 163828, -150494, -89418, 313086, 58542, 153060, 177155, 26055, 65295, 82966, 18044, 82896, 117288, 27176, 168536, -50783, -174809, 65988, 149194, 90350, 1621, 174175, 166674, -15139, -74590, 109501, 116558, 179601, 110753, -77672, 178700, 130464, 82574, -27014, 93367, -46324, 117454, -58381, 28086, -19552, 129771, 103926, -3668, -135195, -24793, 39664, -34551, -4630, 118350, 197058, -11509, 218838, -29483, 7453, 46267, -19389, 71479, 178264, 28424, 148703, 158254, 5200, 5775, 537, -6878, 137450, 144329, -30100, -94659, 209158, 39529, 121881, -9842, 11699, -37404, -74184, 137018, 3472, 253251, 223900, 140150, -25827, -35805, 133105, -41240, 79660, 122100, 161032, -75525, 377185, 28183, 92103, 33027, 35616, 60033, 3431, 74292, -138800, 141620, 59247, 138855, -23399, -21711, 19163, 25788, 60086, 83190, 8852, 90304, 56802, 133498, -68988, -82598, -82952, 66245, 71266, 304994, 38001, -2705, 83992, 125839, -75252, 66763, 43307, 150190, 105559, -38636, -118317, 37186, 89712, 11628, 183566, 152462, -319, -81120, 17718, -5228, 205081, 125424, 49882, 141482, 145277, -5157, -39510, 149664, -42794, 3626, -25576, 111545, 148102, 70061, 57900, -66620, -70281, 144037, 131635, 382484, 43800, 56994, 165081, 26725, 85998, 175074, 83111, -63475, 61080, 106248, 16612, 103389, 143909, -85768, 92643, 76463, 118526, 75700, -1412, -25792, 124600, 141989, 69437, 175336, 181256, 36646, 121995, 93680, 7382, 109119, 92083, -43836, -5554, -52810, -30158, 454, -733, 16234, 27168, 25371, 196004, 82632, 149565, -29645, 274659, 120375, 93741, -6153, 148969, 119744, 78378, 30292, -70742, 184792, 312143, 68890, 166976, 40562, -54668, 66578, -12136, 98784, 194991, -2668, 132418, 44104, 156512, 79616, 17162, 37940, -170635, 182946, 81463, 80791, -1075, 136225, -71984, 79057, 22509, 88259, -29458, 32729, -12198, 196274, -7058, 19683, 12265, 128593, 7364, 60020, 38111, 59399, 64298, 82967, -106856, 35934, 73703, 51808, 41967, 28405, -56730, 82678, 116098, 85353, -77270, 70643, 219750, 207402, -10141, 90819, -60671, -48971, 23487, 18846, 86432, 88979, 63807, 37742, 70535, 68192, 53002, 66303, 180944, 176304, 238664, 219464, 192873, 120867, 31543, 130280, -17205, 30464, 14435, -29788, 193717, 47834, 104768, 61164, -7389, 140115, 175354, 127810, -25352, 115807, 149762, 61716, -39600, 152899, 141347, 63417, -1663, 30386, 174679, -36252, -26038, 32050, 21743, 120234, -85399, 74776, 81545, -112599, -19767, 126397, 9254, 173374, 78333, 90992, 27354, 13818, -29724, 151062, 45278, -86601, 31966, 164287, 39329, 93040, 29686, 142450, 153236, 56846, 95746, 2369, -71055, 132878, 62798, 71209, 224328, -176747, 101945, 2439, -70548, 89050, 121120, 69206, 183244, -94164, -1117, 105598, -95238, -133124, 48613, 107225, -13904, -15233, 221688, 84154, 101338, 56216, 25542, 66736, 34179, 199424, 91278, 147883, 179100, 10808, -32900, 261247, 20779, 212119, 155216, -176510, 126052, 91023, 32581, -35135, 99376, 328758, 43618, -44184, -649, 143672, -13559, -17, 1005, 46066, 109199, 161913, -159646, 105757, 23342, 88116, 197536, 122217, 151790, 47424, -133986, 35158, -15477, 2824, 195109, 34164, 311712, 274148, 117960, 30108, 134682, 101465, 264120, 263526, 156301, -36083, };