#include"Definitions_fully_test.h"
const int layer19_bias [4096]={-167, -211, -350, -298, -285, 131, 206, 66, 52, -77, -16, 7, 192, -254, -185, -2, 217, -30, 79, 277, -199, -179, -120, 76, -228, -11, -400, -153, -453, -320, -13, 197, 275, 244, -26, -259, -171, -252, 110, 220, -149, -30, 28, 329, 86, -211, 356, -132, 90, 130, 569, -50, 171, 277, 509, 3, 46, -591, -204, -247, -29, -305, -86, 116, -589, -339, -4, 140, -165, -344, 293, 40, -644, 26, -65, -90, 35, -85, -320, -85, -277, 161, 20, 333, -562, -43, -319, 229, -746, -64, -208, -218, -39, -517, 49, 126, 434, -40, -563, 142, -179, 3, -474, 25, 151, 20, -101, -250, -276, -544, -89, -81, -16, -7, -115, 209, -2, 132, 86, -116, 168, -468, 323, 158, 5, 86, 93, 192, -186, 69, 60, -656, 151, 32, -114, 721, 168, -227, 239, 117, 125, -203, -181, -123, 195, -490, -316, 115, 83, -28, 54, -265, 47, -1070, -616, 27, 96, -43, -2, -64, -53, 224, -118, 173, 43, -272, -148, -121, -243, -3, -122, -61, 40, 233, 31, -344, 90, 235, -14, 47, 291, -193, 14, -314, -65, 176, 75, 529, -433, -450, -164, 132, 133, 64, 355, 64, -103, 12, 187, 67, -228, -108, -230, -153, -344, 141, 183, -55, -63, -438, 125, -160, -1, 20, -44, -85, 235, 144, -387, 315, -66, 87, 562, 251, 165, 259, -401, -370, 256, 403, -394, -160, 0, 188, -330, 7, -344, 190, -287, -259, 49, 382, 12, 234, 37, -300, -247, 188, -51, 16, -133, -335, -111, -195, -94, -40, 17, -166, 324, 10, -59, 25, -16, -77, 5, -51, -290, 310, -7, -52, 356, 108, 51, -296, -555, 26, -113, -398, -170, 63, 102, -104, 270, -362, -336, -148, -7, 309, -106, -209, -598, 186, 6, 189, 29, -55, -64, 225, -17, 340, -59, 233, 260, 31, 121, -28, 25, 91, -526, 0, 412, -102, 93, 140, -314, -4, -138, 164, -30, -148, -235, 75, -131, -60, -321, 238, 415, -123, 54, 17, 227, -626, 40, -145, 179, -124, 306, 75, 118, -547, -41, -153, -294, -215, -413, 126, -484, 81, -265, -6, -28, -366, -5, 140, -7, -23, -551, -2, 123, -298, 87, 79, -55, 286, -25, 110, -197, 253, -201, -23, 98, 159, 18, -352, 8, -134, -251, -155, -210, 91, -311, -105, -238, -16, -125, -43, -69, 293, 124, -29, 125, 94, 243, -116, 2, -257, -1, -287, -92, 88, 95, 213, -435, -21, -5, -24, -217, -441, 539, 250, 106, 167, -100, 275, -438, -54, -129, -315, -257, 60, 311, -14, -293, 475, -66, -428, 20, 48, -40, 72, -155, 97, 72, 203, -288, -48, -180, 251, 259, 117, -193, -39, -44, -56, 3, 54, 93, -734, 257, -263, 34, -88, -11, -413, -266, -339, -89, 58, 209, 486, -172, -196, 107, -93, -594, -37, -450, -2, -75, -163, -355, 14, -667, -50, -542, 130, 321, 135, 13, -234, 533, -266, -162, -159, -37, -14, -7, -37, 338, 191, 14, 149, -226, 109, 140, -71, -10, 575, -63, 124, 118, -7, 16, 306, -247, -1, -543, 67, -131, 50, 52, -33, -61, -236, -282, 186, -505, 118, 7, -227, -43, 139, 27, 20, 129, 131, -346, -34, 75, 176, -390, -6, -179, -353, -42, -20, -348, -367, -4, 122, -177, -340, -259, -35, 212, 193, -175, 364, -164, -116, 80, 312, 63, -40, -3, -233, -190, -267, 173, -36, 15, -66, 20, -163, -56, -750, -50, -10, -377, -219, -259, 6, 119, -105, 120, -41, -361, -302, -1, -379, 6, -176, 137, -55, -555, -464, 16, -70, -276, 203, 79, -66, 250, -210, -121, 127, -129, -66, -228, 434, -430, -209, -573, -274, -34, 221, 83, 11, -59, -65, -139, 34, -6, -7, -435, 271, -433, 144, 39, -80, -45, 143, -562, 64, 186, 68, 31, 46, 14, 104, -24, -511, 101, -244, 98, 42, 229, 132, 90, -103, 41, 19, -3, -137, 156, 98, -85, 15, -74, -22, -341, 146, 419, 25, -41, -1147, -515, 11, -21, 64, 19, -39, 106, 10, -36, 142, 235, -273, 510, 68, 400, -486, 8, -124, 86, -618, -211, -299, 14, 12, -55, 171, 278, -226, 333, 397, 9, -82, 146, 76, -588, -168, -95, -332, -219, 17, 234, 34, -19, 8, -109, -173, -276, 8, -84, 4, 253, -486, -88, -598, 30, -220, -108, 159, -60, -29, -294, 326, -193, -127, 632, -55, -475, -171, -2, -217, -176, 59, 19, 29, -102, -129, 257, 172, 122, 31, -18, -130, -90, -171, -124, 108, -111, -154, 193, -87, -262, 372, 106, -211, -17, -197, 51, -475, -8, 157, 68, 394, -129, -307, -194, -155, -422, -108, 327, 86, -497, -145, -333, 10, 0, 45, 23, -182, -3, -168, -754, 121, -132, 94, -119, 396, 67, -99, 85, 90, -303, -122, 280, 18, 299, 239, -175, -238, -214, -167, -281, -26, 36, -366, 32, 94, 71, 146, 41, 187, 242, -386, -132, -77, -215, -144, 36, 105, -410, -417, -132, 517, -135, 238, 26, 75, 150, -6, -33, -118, 120, -242, 170, -56, -16, -109, 115, 232, -326, 12, -34, -32, -208, 158, -63, -2, 202, -21, -633, 178, -161, 2, 53, 196, -186, -128, -451, -268, 464, -379, 219, 115, -102, -27, 333, -97, -141, -68, -242, 4, -441, -125, 18, 3, 18, 404, 0, -278, -420, -104, -249, -1221, -101, 43, -241, -3, -164, 19, -206, 415, 167, -542, -86, -5, 203, -216, -31, -39, 31, -155, -89, -86, -84, -218, -229, 152, -515, 13, -166, 23, -252, 52, 75, 460, 49, -201, -455, -394, 13, 26, 97, 148, -368, -27, 203, -302, -16, 68, -183, -86, 119, -6, -216, 1157, -568, 236, 158, -235, -2, 115, -35, -48, -229, -40, -488, 118, -165, -17, 254, 492, 186, 257, 145, -241, -352, -43, -137, -18, -645, 117, 164, 422, 306, -351, -384, -173, -28, -11, -36, -65, -25, 104, -119, 173, 258, -818, -33, -307, -429, -7, 174, -344, -443, -206, -91, 17, -227, -163, 29, -142, -61, -449, -297, -15, 178, 482, -6, 131, -8, 0, 504, -327, 144, 9, -157, -102, 86, 107, -25, -242, -543, -63, -65, -527, -208, 198, -487, 81, -298, 284, -41, 214, -23, 159, -137, 20, -436, 33, 513, 95, 86, -78, -6, -295, -54, 243, 4, 98, 287, 23, 58, 17, -15, -1035, -545, -231, 88, -87, 189, 254, 44, -10, 30, 262, -111, -361, -359, 64, -46, -2, -325, -30, -56, 43, -12, -105, 333, -70, -262, 34, 127, -19, 252, -48, -9, -219, -208, -29, -16, 79, 53, -15, 27, -299, -78, -7, -137, 271, -184, -134, 2, 37, -314, -118, 417, 211, -328, -16, -700, -238, 189, -101, -127, -754, 125, 80, 205, -238, -438, 237, 134, 78, -102, -217, -738, -140, -622, 5, 143, -252, 23, -85, -18, -13, -125, 548, -15, 503, 14, -346, 451, 256, 143, 1, -336, 568, 34, -105, -46, -97, -140, -230, 361, -568, -104, 215, 8, 25, 67, -342, 46, 105, 47, 198, -389, -113, -263, 242, -72, 102, -354, -253, -76, -623, -37, -290, -37, -94, 187, -7, 85, 116, 215, 54, 145, -112, -190, -18, 27, -2, 131, -213, -569, -7, -185, 28, 219, -234, 333, -400, 322, 143, -98, -227, -117, 134, 61, 63, -78, -127, 298, -11, 77, -7, 299, -100, 115, -98, 187, 32, -216, -404, -206, -95, -15, -156, -199, -192, 259, -115, 256, -147, 267, -43, -97, -103, -235, -119, 133, -81, 25, -158, 62, -391, 259, -97, -856, -14, 139, -459, 101, -416, 694, -87, 208, 142, -497, 74, -179, -253, -129, -516, -49, -29, 180, -36, -6, -368, -163, 358, -140, -69, -256, 85, -198, -514, 124, -92, 46, 39, -275, -42, -147, -267, -443, -112, -381, -126, -127, 219, 87, -91, -755, -62, -192, -31, -6, 52, 47, -464, -365, -199, -2, 8, 178, 171, -37, 326, 251, -68, -404, -97, -127, 19, -275, 115, 285, 92, 48, -92, -334, -133, -188, 226, 35, -37, -58, -1012, -324, -266, -21, 506, -69, 33, -682, -139, -41, -296, -781, -78, -205, -45, -555, 46, -10, -18, -53, 368, -78, 391, -100, -86, -84, 276, -54, -158, -98, -383, 11, -158, 193, 386, 22, -260, -12, 226, -48, -85, 8, -77, 129, -677, 99, 11, -202, 156, 112, -51, -207, -415, -523, 101, 42, -122, 169, -268, -118, 79, 161, 68, 98, -81, -10, -41, 15, -166, 45, -166, 112, -114, -246, 307, 73, -228, -118, 13, 164, -417, -103, 79, -76, 15, 207, -2, 234, 105, -48, 71, -351, 76, 21, 249, -204, -74, -58, -148, -320, -28, -85, 149, -250, -37, -213, 311, -111, 126, -664, -27, -111, 376, -19, -94, -69, -174, -115, -11, -596, 14, 253, -145, -60, 108, 171, -285, -218, -138, 224, -221, -474, 355, 95, -255, -279, -38, -41, -103, 3, -544, 251, -161, -68, -651, -457, -89, -183, 152, -235, -365, -305, 34, -125, 156, -146, -638, 27, 183, 92, 63, -8, -211, -30, 246, 133, 239, 141, -15, -54, -48, -26, 98, -300, -255, -404, -168, -168, -97, 1, 9, 62, -202, -4, -479, -277, -143, -214, 154, -54, 379, -148, -494, -550, 73, -34, -265, -38, -15, 150, -155, -114, -559, -471, -51, 32, -175, -8, -93, 14, -36, -563, -134, -239, -207, -84, -275, -12, -471, 349, 48, 212, 100, -369, 76, -74, 102, 14, -19, -576, 66, 11, -436, -8, 170, -290, -2, -5, -5, -265, 21, -97, 307, -89, 1, 190, 129, -2, 149, -139, -38, -600, 240, 65, -145, 128, 75, 286, 20, -165, -196, 93, -199, -331, -231, -254, -72, -169, -78, -454, -110, 79, 89, -10, -262, -323, -350, 36, -600, -24, -261, -23, 285, -169, -76, 165, 179, 4, -521, -144, -480, 68, -92, 48, 65, -165, -228, 66, -154, -64, -293, -454, 111, 30, -85, 72, -22, -385, -165, -20, -273, -61, 24, 238, 5, -134, 247, 81, -199, -322, 135, -62, -155, -62, -575, -99, -95, 70, 177, -515, -5, 311, -1, -188, 38, -65, 117, -165, -124, -248, 128, -102, -7, 22, 45, -64, 17, -23, -647, -72, -467, -64, -295, 443, -123, -144, -85, 83, -180, 195, 30, -148, 34, 25, -103, -36, -181, 125, -139, -168, -12, 251, -168, -284, 119, -302, 196, 495, -225, -63, -437, -120, -288, -26, 38, 16, 467, -57, -116, -30, 95, -310, -92, -92, -235, -237, 26, -397, -54, -62, -285, -193, -508, 479, -613, 25, 380, -570, -442, -31, 485, -6, -244, -287, 216, 101, -16, -521, 230, -81, -1, -144, -185, -56, -47, -392, 72, 7, 27, -52, 253, 115, 316, -301, 333, -339, -410, 116, -153, 288, -228, 17, 393, -101, -132, -40, 107, -558, 85, 176, -45, 209, -168, -115, -33, -70, -209, 264, 74, -28, 130, -2, 47, 231, -429, -51, -157, -52, -180, 299, -64, 274, -239, -155, -121, 84, -253, -258, -498, -412, -163, 146, -389, -533, 281, -20, -136, 107, -679, 122, -39, 20, -144, -103, -142, -296, -146, 43, -210, -332, -65, -29, -11, 113, 116, 31, -55, -10, 282, -179, 384, -267, -287, 224, -127, -436, 284, -671, -199, -231, -41, -42, 92, 134, -206, 101, -73, -147, 107, -165, 206, 309, 72, 60, -63, -236, -151, 151, 479, 131, 269, -55, -153, 106, 77, 453, 235, 164, 2, 184, -298, 271, 424, -3, -37, -57, 186, 60, 34, 179, -57, 196, -7, 231, -71, -18, 453, 25, -83, 32, 212, -52, -18, 145, -494, -130, 198, -178, -66, 171, 120, -76, 22, -289, 58, 279, 526, -37, -111, 500, 128, -1006, 30, 449, -87, 290, 39, -360, 12, -433, -23, -289, -142, 157, 84, -204, 273, 96, -248, -131, 55, -74, 138, 101, 111, 100, 134, -115, -220, 38, 204, 154, -322, 251, -7, 60, -13, 150, 16, -397, 6, -305, 109, -143, 153, 384, -88, 100, 116, -48, 31, -93, 208, 214, 0, -328, -44, -1, -244, -2, -214, -2, -229, 460, -498, 56, 0, -206, -224, -316, 135, 20, 464, 188, -33, 117, -214, -1032, 66, 38, -124, -42, -180, -255, -196, -60, 112, -29, -299, 160, -127, 381, 151, -47, -134, 261, 75, -397, -20, 400, 10, 6, 197, -35, 486, -241, 95, -1140, 22, -119, -424, 118, 222, -193, 52, 98, -40, -42, 171, 1, -222, -6, 357, -7, 71, -780, 274, 134, -57, -470, -511, 119, 273, 39, -206, -115, -285, 22, 10, -421, -176, -200, 10, -511, -80, -27, -79, 272, 10, -512, 110, -123, 73, -33, -283, -2, 96, 125, -463, 37, 13, -72, -155, -7, 126, -468, -568, -568, -232, 79, 74, -167, 483, -572, -120, 12, 148, -31, 542, -302, -341, 15, 63, 89, 228, 4, -254, 119, -57, 121, -11, -266, 82, -210, 319, -272, -54, -167, 1, -68, -15, -52, -137, 162, 280, -166, 27, -806, 524, -341, -97, 303, 307, 52, 120, 49, 123, -4, -239, 158, -199, -2, 33, 195, 67, -1, -710, -106, 58, 142, -33, -110, -63, -417, 197, -334, -153, 326, -66, -454, -637, -8, 273, -342, -88, -397, -81, -268, 253, -197, -489, -364, 18, 125, -73, 73, -526, -49, -167, -160, 178, 126, 4, -53, -333, -731, 130, -218, -259, -963, 22, -67, 17, -24, -292, -398, 21, -342, -606, 90, -201, -74, -18, -29, -25, 367, -27, -169, 155, -355, 210, 52, 27, -63, -114, 18, -100, 44, -1, -26, -27, -720, 260, 187, -217, -277, -107, -231, 13, 361, -179, -300, 91, -367, -113, -310, 144, 3, -394, -146, -31, 44, 116, -54, -697, 211, 141, -206, -5, -42, 5, -21, -351, -195, -81, -131, -475, -267, 124, 83, -749, 315, 183, -27, -67, -168, -267, 123, -62, 96, -170, -23, 429, -332, 289, 24, -152, 317, 24, -657, 255, -82, -7, 10, 258, -328, 162, 3, 38, -124, 228, 99, -181, -78, -42, -293, 333, 163, 30, -274, -256, -2, -56, -23, 4, -67, 44, 82, 439, 264, 126, 11, -434, 203, -5, -264, -440, -377, -72, -248, -289, -154, 152, -599, 436, 250, -8, 277, -128, 167, 317, -79, 76, -67, -268, -282, 70, 62, 245, 26, -111, -149, 49, 62, 166, -464, -427, -118, -177, -15, -14, -136, -249, 95, 519, 251, -12, -647, -20, -108, 42, -297, -192, 30, -303, -239, 106, 0, -219, -6, -86, -691, -246, 101, -214, -89, -302, 231, -76, -75, -25, 417, 379, -738, -14, -336, -103, 496, -215, -334, 247, -11, 78, 332, -79, 44, -634, 327, -186, -515, 27, 43, -377, -357, -41, 139, -51, -178, -189, -354, -20, 225, -81, 68, -303, 128, -170, 36, 69, -208, 17, -334, -150, 202, 184, 292, -125, 133, -516, 125, -79, -15, -347, -240, -90, -437, 185, -30, -148, -660, -150, -170, -474, -297, 15, -53, -592, -221, 63, -259, 104, -128, -160, -435, 374, 497, -149, -84, -202, -67, 106, -321, -158, -247, -60, -20, -129, 73, -522, -457, 147, -229, -247, -85, -108, -226, 60, -25, -53, 8, 130, 11, 469, -107, -192, 301, 68, -249, -323, -108, -309, 1, -91, 147, -30, -191, 67, -327, 73, -352, -94, 286, 412, -183, 5, -25, -116, 427, -97, 20, -150, 196, -166, 54, -68, -201, 256, -11, -384, -233, -36, -276, -118, -10, -28, -120, -272, 17, 239, 323, -20, -47, 10, 118, -356, 465, -44, -119, -897, -111, 307, -281, -469, 85, -534, 20, -242, -162, -318, -119, -161, 124, -276, -224, -520, 105, 253, -436, -92, 108, -108, 238, 102, 240, -83, -176, 9, 13, -593, 484, 132, -28, 148, -111, -8, 183, -273, -2, 337, -216, 37, -247, -227, -106, -471, -134, 257, -128, -19, -317, -7, -23, -138, -7, 147, 110, 1, -175, 16, -179, -144, -127, 9, -35, -85, -1066, 163, -165, -87, -436, -168, -7, -177, 23, 237, -144, -62, 311, -493, 5, -120, -374, 88, -427, 331, -207, -61, -72, -16, -162, 165, 45, -196, 87, 66, -31, -19, -771, 112, -492, -127, -35, 438, -213, 88, 1, -2, -19, -152, 385, -62, -26, -24, -71, -65, -609, -514, -241, -553, 95, -61, 414, -220, 113, -378, 479, -45, -12, -131, -55, -51, -121, -68, -97, 68, -205, 280, -82, -154, 302, 172, -583, -130, -122, -289, -244, -127, -227, 97, -167, 18, 39, -54, -420, -24, -124, -136, 7, -76, -50, -84, -120, -136, -435, 143, -56, -72, -155, -199, -25, 68, -96, -251, -322, -332, -67, -202, 22, 73, 153, 99, 236, -393, 95, 121, -257, -167, -158, -458, -524, 229, 511, -8, 317, -200, 35, 169, -82, -191, -207, -124, 181, -236, 109, 72, -218, 109, 175, -220, -191, 59, 114, 91, -183, -155, 200, -188, -195, -343, -45, 38, 20, 345, 282, 155, 6, -184, -338, -211, 104, -91, -160, 92, -158, -65, -95, -78, -30, 97, 4, -280, -124, -9, -67, 101, 54, 347, -271, -392, 94, 130, -459, -363, 239, -4, -63, -122, -168, -4, 24, -366, 285, 58, 60, -52, 168, 316, -19, -20, -153, -215, -256, -181, 92, 205, -80, -63, -238, 173, -327, 250, 281, 60, -232, -184, 0, -365, -276, 378, 87, -205, 86, 34, -147, -72, 535, 137, 533, 351, 46, -53, 131, -602, -51, -112, -180, -70, -17, -49, -327, -406, -99, 37, -112, -120, 406, -431, -274, 114, -9, -221, 129, 28, 145, -270, -53, 1, -191, -174, 98, -109, 128, -23, -209, -381, -563, 78, -252, 25, -269, -388, 124, 143, 224, -44, -67, 42, -64, -115, -346, -33, 176, 165, -35, -73, 305, -556, -87, -213, -19, -684, -34, -104, 184, 95, -58, -137, 100, -266, -240, 45, 212, 25, -323, 152, -104, 184, 87, -425, -149, -135, -60, -26, -183, 77, -393, 269, -27, -286, 97, -409, -142, 86, 146, -140, -444, -10, 145, 50, 112, 356, -35, -62, -55, -391, -144, -154, 27, -162, -100, -115, 39, -267, -284, -62, -374, -291, -618, -214, -302, 51, -593, 79, -127, 30, -269, 132, 68, 378, -5, 226, 44, 192, 212, 196, -191, 116, -247, -94, -113, -176, 154, -3, 207, 148, -133, 104, -6, 164, -254, -217, -65, -36, -39, -181, -237, -131, -419, -122, -83, -140, 295, -202, 83, -210, 343, -37, -73, -88, 393, -148, 86, -168, 119, 96, 208, 74, -8, -11, -293, 122, 579, 9, -100, 32, -115, 56, -30, -6, 246, -324, -195, -239, 434, -205, -44, -119, -76, 169, 99, -101, -32, -77, 239, -177, 229, -227, -471, 111, 101, -257, -867, 145, -107, 595, -78, 25, -132, -109, 28, 242, 401, -39, -166, -522, -64, -323, -158, -127, 100, 4, -150, -104, -137, -202, 75, -30, -577, -128, 195, -275, 318, 153, 230, 185, -75, -299, -125, -101, -89, 75, 89, -133, -102, -275, -113, -326, -37, -359, -78, -342, -156, -120, 172, 59, -633, 111, 291, 190, -241, -159, -487, 27, 321, 49, -110, 64, 428, 19, 168, 237, -79, 134, 130, 155, 470, -131, -106, -57, -51, -145, 325, -181, -93, -330, -1, -105, -250, 218, -60, 176, 17, 150, 0, -238, -58, -152, -224, 54, -120, -5, 72, -151, -363, -282, 351, -185, 39, -155, 300, 68, 164, -287, 54, 7, 537, -37, -2, 72, 62, -433, 56, -81, 138, -90, -139, -394, -467, -107, 132, -747, 293, -564, -311, -166, -183, -181, -46, -40, 145, -256, -223, -264, -109, 557, 379, -372, -811, 55, 1, 52, -245, -306, -337, -813, 173, -642, -146, -128, -49, -215, -276, -203, -23, -94, -124, -32, 26, 159, -12, 164, 58, -49, -651, -171, -351, 27, -231, -154, -473, 35, 52, 218, 383, 0, 580, 40, 27, 8, 17, -460, -94, -129, -15, 200, 14, 169, -393, -42, -300, 250, -451, -221, -66, -140, -97, 109, -119, -491, -102, -8, -83, -203, 0, -102, -85, -166, 64, 9, -53, -119, 96, 233, 401, 196, -102, -3, -157, 186, 43, 97, -194, 57, 111, -465, 200, -257, 356, 145, 4, 0, 69, -81, -47, -632, 132, -17, 4, -38, 0, -113, -145, -113, -395, -305, -13, -15, 2, 246, -138, 418, -120, -594, 126, -244, 181, -15, -27, -927, -150, -176, -63, 99, -229, 143, -181, 6, -66, -592, -165, 9, 79, 35, 452, 290, -112, -125, -1, -17, 49, 326, 65, -517, -18, 191, -434, -454, -267, 2, 32, -268, -28, -435, 73, -90, 135, -99, 15, 22, -617, 61, -193, 242, -109, 281, 568, -123, -83, 386, -143, 180, -485, 12, 21, -250, -233, -53, 97, -100, 92, -7, -483, -57, -351, 62, 16, -122, -15, -288, -175, 38, -443, -116, 239, -199, -29, -29, 126, 10, -395, -220, 10, -43, 92, -192, 220, 205, -186, 112, -55, -447, 15, -109, 28, 51, 176, 428, -401, -99, -88, -116, 362, -50, 169, 68, 414, -219, 169, 122, 532, 344, -66, -281, -22, -345, 89, -739, -92, 52, -785, 28, -39, -18, -116, 107, -307, -66, 51, -6, -457, 69, -224, -110, -51, -60, 74, -101, -760, -134, -467, -108, -32, -278, -266, -72, 0, -10, -289, 300, 32, -113, 102, -6, -226, 6, -96, 65, 31, -100, -73, -111, -189, -51, -235, -42, -127, -119, -613, -143, 33, 107, -185, -51, -25, -127, -711, -418, -60, 150, 55, 167, -94, -226, -129, -101, -189, -504, -813, 0, -550, -177, -46, 200, 65, -351, 53, -39, -167, -149, 17, -257, 60, -170, 121, -82, -85, -161, -899, -582, 133, -20, 151, -43, 199, -73, -638, -79, -155, 331, 129, -512, 166, -693, 17, 231, 222, 165, -46, -35, 91, 121, -84, -22, -131, -45, -37, -687, 217, -197, 20, -16, -552, -239, -313, 210, -126, -17, 28, 11, -262, -36, -368, 297, -107, -14, 143, -272, -223, 191, 103, 38, 13, -4, 605, -154, -38, 527, 330, 26, 165, -287, -256, -211, 244, 275, 150, -20, -132, 6, -128, -241, 350, 39, 111, 137, -96, 57, -3, -4, -364, 232, 231, 17, -73, -140, -204, 66, -54, -341, -628, -1029, -133, 208, -543, -50, -42, -119, 93, -495, 22, 32, 2, 322, -250, -67, -330, 145, 274, -136, 82, 2, -171, -181, -53, -78, -245, 66, -155, -30, -76, -252, -16, 87, 459, -92, 229, -486, -73, 235, -536, -344, -6, 142, 69, 83, 314, -265, 103, -67, -149, 148, -58, 309, -136, -11, -301, -174, -276, 179, -148, 33, -175, 38, -183, -135, -113, -381, 57, -62, 203, -46, -166, -107, 129, -88, 55, 151, 399, -65, -205, -101, 4, 237, 48, -407, -1150, 68, -246, -25, -205, 134, -449, -709, -37, 568, 180, 38, 300, -225, -52, -458, -20, -15, 333, -576, -27, 6, -253, -9, 170, -34, -66, -125, 114, 244, -98, -155, 67, -1361, 237, -400, -215, -469, 30, -441, -86, -68, 630, 144, -223, -332, -353, -275, -69, 66, 4, -391, -602, -199, 92, -217, 8, 35, -633, 54, 39, 70, 340, -667, -128, 65, -239, 169, 622, 40, -223, 0, -400, -35, -45, 81, -374, -464, 49, 145, -2, -64, -75, 192, 9, -354, -17, -14, -143, -174, -147, 125, 89, 195, 286, 25, 12, -440, -56, -490, 333, -148, -119, 398, 298, 7, -19, 37, -29, 255, -211, -10, 134, -299, 198, 90, -181, 49, -31, -22, 229, 64, -101, -141, -43, -116, 0, 359, 96, -925, 239, 105, -223, 30, -118, -74, -1, 255, -100, 38, -107, -12, -468, -74, 35, -134, -655, 53, -111, -287, -264, -22, 114, -77, 163, 295, 383, -74, 0, -9, -110, 0, -104, -137, 255, -515, -184, 131, -429, -7, 14, 419, 137, 179, -62, -224, -40, 225, -203, 73, -37, -25, 68, 116, -109, -67, -249, 142, -216, -101, 228, -210, 157, -43, -35, 326, -25, -71, 2, -57, 61, 3, 28, 203, 133, 131, -41, 113, -115, -440, 58, -175, -257, 234, 405, -2, 331, 168, 375, -42, -115, -459, 237, -149, 215, 161, -227, -457, -109, 41, 142, 40, 242, 14, 157, -10, -72, 68, 192, 139, -196, -284, -37, 524, -110, -78, -453, -92, -828, -101, -101, -82, 128, 72, -320, -14, 488, -21, 219, -177, -130, 3, -56, -221, 117, 62, -136, 274, -210, 0, 132, -201, 281, 167, -35, -29, 204, -3, -213, 42, 82, -260, 283, -31, -933, -43, -516, -86, 120, 45, -102, 117, -337, 117, -91, -212, 180, 32, 36, -102, -27, 238, 16, -66, -213, 392, 37, -110, -269, -5, -131, -2, -95, -269, -83, -5, -385, 393, -328, -478, -601, -229, 287, 398, -152, 213, -179, -374, 75, -38, -212, -83, -41, -71, -91, -98, -1, -5, -40, 308, -142, -221, 75, -711, -517, -454, -203, 47, -355, 108, -250, 20, -34, -151, 15, 530, 331, -65, 300, -107, -809, 285, 72, 333, -183, 47, -233, -90, 53, -314, 46, 119, 52, 104, -211, -458, -16, -85, 116, -30, -5, 365, -852, -186, -93, 18, 66, -488, -5, -257, -394, -20, -461, -147, -1, 325, 223, 4, -570, -105, 141, -58, 3, -116, -57, -577, -196, -115 };